0.010225123874598459 0.010103778090656473 -0.011986598341357412 -0.003201450700150403 -0.006391634870212856 0.009272130902714107 -0.008303515430095545 -0.003840712887745601
0.01185534022700622 0.002875121821846122 0.0001497756309801717 0.002328231338208869 0.003941792212232454 0.008401926795141335 -0.00990470686124133 0.0027398468053043243
0.012474235816697356 0.007174690035006629 -0.008078155008737651 0.011802310663554597 -0.007723748408030733 0.0006669444243547496 0.00790149117298819 -0.006390307513909976
-0.0015473269494132977 -0.005187926479712631 -0.013299899816384231 0.009593772280924173 -0.0055556927140041085 -0.0029798958170232292 -0.00043896910446149224 -0.011195464187069388
0.0041799644697354315 -0.004853562245356256 -0.0019017588913436674 0.010013234923292702 -0.007741539525910408 -9.429805038395872e-06 0.0036175164380795577 -0.003979520116484165
-0.006303062393728166 0.002930004018541328 -0.00041233094519338984 0.006316423404626254 0.009103685506346267 0.003440712870928941 0.007797523979147917 -0.009513829475401787
-0.004517331150833157 0.00835930735771949 -0.005733675621900171 -0.0006759052861305116 0.008761912054437762 -0.0013355282976990521 0.004745809091601311 0.0022572598502586237
0.010363748034386062 0.004685322319102852 0.001330967569740312 0.0029960615438798274 -0.004389666285289794 0.00962718473687543 -0.0017086608366494924 0.007033689610092547